<?xml version="1.0"?>
<opencv_storage>
<cascade>
  <stageType>BOOST</stageType>
  <featureType>HAAR</featureType>
  <height>24</height>
  <width>24</width>
  <stageParams>
    <boostType>GAB</boostType>
    <minHitRate>9.9500000476837158e-01</minHitRate>
    <maxFalseAlarm>5.0000000000000000e-01</maxFalseAlarm>
    <weightTrimRate>9.4999998807907104e-01</weightTrimRate>
    <maxDepth>1</maxDepth>
    <maxWeakCount>100</maxWeakCount></stageParams>
  <featureParams>
    <maxCatCount>0</maxCatCount>
    <featSize>1</featSize>
    <mode>BASIC</mode></featureParams>
  <stageNum>15</stageNum>
  <stages>
    <!-- stage 0 -->
    <_>
      <maxWeakCount>2</maxWeakCount>
      <stageThreshold>-1.4606320858001709e-01</stageThreshold>
      <weakClassifiers>
        <_>
          <internalNodes>
            0 -1 50 -3.2962560653686523e-02</internalNodes>
          <leafValues>
            8.0444443225860596e-01 -9.0350878238677979e-01</leafValues></_>
        <_>
          <internalNodes>
            0 -1 94 7.2213470935821533e-02</internalNodes>
          <leafValues>
            -7.7554816007614136e-01 7.5744557380676270e-01</leafValues></_></weakClassifiers></_>
    <!-- stage 1 -->
    <_>
      <maxWeakCount>2</maxWeakCount>
      <stageThreshold>-1.5602040290832520e-01</stageThreshold>
      <weakClassifiers>
        <_>
          <internalNodes>
            0 -1 33 1.3107028789818287e-02</internalNodes>
          <leafValues>
            -8.0477225780487061e-01 7.4925374984741211e-01</leafValues></_>
        <_>
          <internalNodes>
            0 -1 11 -4.2476885020732880e-02</internalNodes>
          <leafValues>
            6.4875185489654541e-01 -7.5506734848022461e-01</leafValues></_></weakClassifiers></_>
    <!-- stage 2 -->
    <_>
      <maxWeakCount>4</maxWeakCount>
      <stageThreshold>-8.7625682353973389e-01</stageThreshold>
      <weakClassifiers>
        <_>
          <internalNodes>
            0 -1 37 -6.2112852931022644e-02</internalNodes>
          <leafValues>
            5.6410259008407593e-01 -8.8034188747406006e-01</leafValues></_>
        <_>
          <internalNodes>
            0 -1 39 2.3741189390420914e-02</internalNodes>
          <leafValues>
            -6.1788862943649292e-01 6.4408642053604126e-01</leafValues></_>
        <_>
          <internalNodes>
            0 -1 84 6.5064743161201477e-02</internalNodes>
          <leafValues>
            -8.4146207571029663e-01 3.4453961253166199e-01</leafValues></_>
        <_>
          <internalNodes>
            0 -1 42 -3.1501553952693939e-02</internalNodes>
          <leafValues>
            2.7743411064147949e-01 -9.2176419496536255e-01</leafValues></_></weakClassifiers></_>
    <!-- stage 3 -->
    <_>
      <maxWeakCount>5</maxWeakCount>
      <stageThreshold>-9.9819332361221313e-01</stageThreshold>
      <weakClassifiers>
        <_>
          <internalNodes>
            0 -1 87 8.7714120745658875e-02</internalNodes>
          <leafValues>
            -7.1904760599136353e-01 6.0900139808654785e-01</leafValues></_>
        <_>
          <internalNodes>
            0 -1 10 -6.2697246670722961e-02</internalNodes>
          <leafValues>
            4.5316660404205322e-01 -5.5517441034317017e-01</leafValues></_>
        <_>
          <internalNodes>
            0 -1 48 3.8750074803829193e-02</internalNodes>
          <leafValues>
            -4.6324715018272400e-01 6.2000030279159546e-01</leafValues></_>
        <_>
          <internalNodes>
            0 -1 58 -2.9543954879045486e-02</internalNodes>
          <leafValues>
            3.1487071514129639e-01 -7.6192563772201538e-01</leafValues></_>
        <_>
          <internalNodes>
            0 -1 16 -7.6377540826797485e-02</internalNodes>
          <leafValues>
            -8.3518856763839722e-01 1.8584501743316650e-01</leafValues></_></weakClassifiers></_>
    <!-- stage 4 -->
    <_>
      <maxWeakCount>7</maxWeakCount>
      <stageThreshold>-8.3601802587509155e-01</stageThreshold>
      <weakClassifiers>
        <_>
          <internalNodes>
            0 -1 13 -5.3768545389175415e-02</internalNodes>
          <leafValues>
            5.3388428688049316e-01 -3.6501902341842651e-01</leafValues></_>
        <_>
          <internalNodes>
            0 -1 28 1.1369885876774788e-02</internalNodes>
          <leafValues>
            -7.7479678392410278e-01 3.2324013113975525e-01</leafValues></_>
        <_>
          <internalNodes>
            0 -1 15 -4.7831347584724426e-01</internalNodes>
          <leafValues>
            6.0622036457061768e-01 -3.6063972115516663e-01</leafValues></_>
        <_>
          <internalNodes>
            0 -1 52 -7.5239844620227814e-02</internalNodes>
          <leafValues>
            3.4614741802215576e-01 -6.3455915451049805e-01</leafValues></_>
        <_>
          <internalNodes>
            0 -1 95 1.0160714387893677e-01</internalNodes>
          <leafValues>
            -5.4958969354629517e-01 3.7279659509658813e-01</leafValues></_>
        <_>
          <internalNodes>
            0 -1 70 4.4880271889269352e-03</internalNodes>
          <leafValues>
            -2.5397437810897827e-01 8.9452356100082397e-01</leafValues></_>
        <_>
          <internalNodes>
            0 -1 4 3.3006347715854645e-02</internalNodes>
          <leafValues>
            2.8127118945121765e-01 -8.6175066232681274e-01</leafValues></_></weakClassifiers></_>
    <!-- stage 5 -->
    <_>
      <maxWeakCount>8</maxWeakCount>
      <stageThreshold>-1.4506143331527710e+00</stageThreshold>
      <weakClassifiers>
        <_>
          <internalNodes>
            0 -1 47 2.4415373802185059e-02</internalNodes>
          <leafValues>
            -3.5327103734016418e-01 5.3691273927688599e-01</leafValues></_>
        <_>
          <internalNodes>
            0 -1 29 -1.2341847270727158e-01</internalNodes>
          <leafValues>
            3.1944066286087036e-01 -7.0393162965774536e-01</leafValues></_>
        <_>
          <internalNodes>
            0 -1 19 -8.9469850063323975e-03</internalNodes>
          <leafValues>
            2.1170468628406525e-01 -7.2111028432846069e-01</leafValues></_>
        <_>
          <internalNodes>
            0 -1 86 4.5851580798625946e-02</internalNodes>
          <leafValues>
            -6.7335331439971924e-01 2.5105676054954529e-01</leafValues></_>
        <_>
          <internalNodes>
            0 -1 41 -2.3173511028289795e-02</internalNodes>
          <leafValues>
            4.3915155529975891e-01 -5.0174421072006226e-01</leafValues></_>
        <_>
          <internalNodes>
            0 -1 3 -1.6215894371271133e-02</internalNodes>
          <leafValues>
            -7.7792090177536011e-01 1.9086521863937378e-01</leafValues></_>
        <_>
          <internalNodes>
            0 -1 35 1.2481408193707466e-02</internalNodes>
          <leafValues>
            -3.4079959988594055e-01 4.6820256114006042e-01</leafValues></_>
        <_>
          <internalNodes>
            0 -1 21 -1.6155254840850830e-01</internalNodes>
          <leafValues>
            5.2367752790451050e-01 -3.0345678329467773e-01</leafValues></_></weakClassifiers></_>
    <!-- stage 6 -->
    <_>
      <maxWeakCount>8</maxWeakCount>
      <stageThreshold>-8.1820952892303467e-01</stageThreshold>
      <weakClassifiers>
        <_>
          <internalNodes>
            0 -1 27 4.7287423163652420e-02</internalNodes>
          <leafValues>
            2.9645094275474548e-01 -8.8439303636550903e-01</leafValues></_>
        <_>
          <internalNodes>
            0 -1 53 -2.3499064147472382e-02</internalNodes>
          <leafValues>
            1.8554139137268066e-01 -8.2379770278930664e-01</leafValues></_>
        <_>
          <internalNodes>
            0 -1 54 -8.8375151157379150e-02</internalNodes>
          <leafValues>
            2.0018142461776733e-01 -7.1341687440872192e-01</leafValues></_>
        <_>
          <internalNodes>
            0 -1 12 -1.8953623250126839e-02</internalNodes>
          <leafValues>
            -5.5501019954681396e-01 3.0973008275032043e-01</leafValues></_>
        <_>
          <internalNodes>
            0 -1 82 -8.8913906365633011e-03</internalNodes>
          <leafValues>
            4.2393302917480469e-01 -4.1219276189804077e-01</leafValues></_>
        <_>
          <internalNodes>
            0 -1 92 3.2150701736100018e-04</internalNodes>
          <leafValues>
            -2.5434774160385132e-01 6.5547323226928711e-01</leafValues></_>
        <_>
          <internalNodes>
            0 -1 8 -3.9714667946100235e-04</internalNodes>
          <leafValues>
            -5.7110768556594849e-01 2.8806838393211365e-01</leafValues></_>
        <_>
          <internalNodes>
            0 -1 75 -1.0516815818846226e-03</internalNodes>
          <leafValues>
            6.7782247066497803e-01 -2.4701988697052002e-01</leafValues></_></weakClassifiers></_>
    <!-- stage 7 -->
    <_>
      <maxWeakCount>8</maxWeakCount>
      <stageThreshold>-9.6581566333770752e-01</stageThreshold>
      <weakClassifiers>
        <_>
          <internalNodes>
            0 -1 5 -3.8737282156944275e-02</internalNodes>
          <leafValues>
            3.1397849321365356e-01 -8.0099505186080933e-01</leafValues></_>
        <_>
          <internalNodes>
            0 -1 93 8.4715008735656738e-02</internalNodes>
          <leafValues>
            -6.6634345054626465e-01 2.6456928253173828e-01</leafValues></_>
        <_>
          <internalNodes>
            0 -1 45 -2.5610785931348801e-02</internalNodes>
          <leafValues>
            -9.3828672170639038e-01 1.4097267389297485e-01</leafValues></_>
        <_>
          <internalNodes>
            0 -1 23 4.3923440389335155e-03</internalNodes>
          <leafValues>
            2.9264932870864868e-01 -5.6313526630401611e-01</leafValues></_>
        <_>
          <internalNodes>
            0 -1 63 7.6933586969971657e-03</internalNodes>
          <leafValues>
            -4.1680502891540527e-01 3.7963852286338806e-01</leafValues></_>
        <_>
          <internalNodes>
            0 -1 7 -8.7603047490119934e-02</internalNodes>
          <leafValues>
            3.0540236830711365e-01 -5.2151221036911011e-01</leafValues></_>
        <_>
          <internalNodes>
            0 -1 1 -3.5187543835490942e-04</internalNodes>
          <leafValues>
            -5.9572887420654297e-01 3.0501645803451538e-01</leafValues></_>
        <_>
          <internalNodes>
            0 -1 91 2.5401816237717867e-03</internalNodes>
          <leafValues>
            -2.2971111536026001e-01 8.0423516035079956e-01</leafValues></_></weakClassifiers></_>
    <!-- stage 8 -->
    <_>
      <maxWeakCount>9</maxWeakCount>
      <stageThreshold>-6.0812866687774658e-01</stageThreshold>
      <weakClassifiers>
        <_>
          <internalNodes>
            0 -1 32 -9.2890821397304535e-03</internalNodes>
          <leafValues>
            3.0289533734321594e-01 -6.0515022277832031e-01</leafValues></_>
        <_>
          <internalNodes>
            0 -1 79 -1.2473342940211296e-03</internalNodes>
          <leafValues>
            8.4993773698806763e-01 -1.6796235740184784e-01</leafValues></_>
        <_>
          <internalNodes>
            0 -1 38 -2.5661669671535492e-02</internalNodes>
          <leafValues>
            2.2573757171630859e-01 -6.8107491731643677e-01</leafValues></_>
        <_>
          <internalNodes>
            0 -1 99 1.4701953157782555e-02</internalNodes>
          <leafValues>
            -7.5372558832168579e-01 1.8136167526245117e-01</leafValues></_>
        <_>
          <internalNodes>
            0 -1 46 -6.3332129502668977e-04</internalNodes>
          <leafValues>
            7.3043954372406006e-01 -2.7849784493446350e-01</leafValues></_>
        <_>
          <internalNodes>
            0 -1 24 -1.7445109551772475e-04</internalNodes>
          <leafValues>
            -6.0563600063323975e-01 3.1866538524627686e-01</leafValues></_>
        <_>
          <internalNodes>
            0 -1 68 -2.1204182412475348e-03</internalNodes>
          <leafValues>
            7.3184299468994141e-01 -2.5612792372703552e-01</leafValues></_>
        <_>
          <internalNodes>
            0 -1 68 1.2430162169039249e-03</internalNodes>
          <leafValues>
            -1.7652899026870728e-01 6.8195289373397827e-01</leafValues></_>
        <_>
          <internalNodes>
            0 -1 104 -6.6301098559051752e-04</internalNodes>
          <leafValues>
            -7.5888431072235107e-01 1.7741577327251434e-01</leafValues></_></weakClassifiers></_>
    <!-- stage 9 -->
    <_>
      <maxWeakCount>12</maxWeakCount>
      <stageThreshold>-7.0444339513778687e-01</stageThreshold>
      <weakClassifiers>
        <_>
          <internalNodes>
            0 -1 109 7.1904461947269738e-05</internalNodes>
          <leafValues>
            3.4504392743110657e-01 -4.3113771080970764e-01</leafValues></_>
        <_>
          <internalNodes>
            0 -1 22 -2.5268800556659698e-02</internalNodes>
          <leafValues>
            5.3599715232849121e-01 -2.5354108214378357e-01</leafValues></_>
        <_>
          <internalNodes>
            0 -1 34 1.4423373155295849e-02</internalNodes>
          <leafValues>
            -6.2657946348190308e-01 1.9996640086174011e-01</leafValues></_>
        <_>
          <internalNodes>
            0 -1 102 1.5350377187132835e-02</internalNodes>
          <leafValues>
            -2.7032086253166199e-01 4.8556929826736450e-01</leafValues></_>
        <_>
          <internalNodes>
            0 -1 14 -4.2299076914787292e-01</internalNodes>
          <leafValues>
            6.5100461244583130e-01 -2.7203252911567688e-01</leafValues></_>
        <_>
          <internalNodes>
            0 -1 26 -1.5046484768390656e-02</internalNodes>
          <leafValues>
            4.7205677628517151e-01 -2.2339130938053131e-01</leafValues></_>
        <_>
          <internalNodes>
            0 -1 56 1.8747106194496155e-02</internalNodes>
          <leafValues>
            1.4504350721836090e-01 -9.2756795883178711e-01</leafValues></_>
        <_>
          <internalNodes>
            0 -1 51 -1.5292246825993061e-03</internalNodes>
          <leafValues>
            6.2674736976623535e-01 -2.2321712970733643e-01</leafValues></_>
        <_>
          <internalNodes>
            0 -1 96 -1.6126829432323575e-03</internalNodes>
          <leafValues>
            5.7691860198974609e-01 -2.1670016646385193e-01</leafValues></_>
        <_>
          <internalNodes>
            0 -1 98 -8.5432454943656921e-04</internalNodes>
          <leafValues>
            6.5003377199172974e-01 -1.6549427807331085e-01</leafValues></_>
        <_>
          <internalNodes>
            0 -1 100 1.1404983233660460e-03</internalNodes>
          <leafValues>
            -1.6075968742370605e-01 6.1126649379730225e-01</leafValues></_>
        <_>
          <internalNodes>
            0 -1 97 4.3379608541727066e-04</internalNodes>
          <leafValues>
            -2.7156120538711548e-01 4.0732914209365845e-01</leafValues></_></weakClassifiers></_>
    <!-- stage 10 -->
    <_>
      <maxWeakCount>11</maxWeakCount>
      <stageThreshold>-7.3501110076904297e-01</stageThreshold>
      <weakClassifiers>
        <_>
          <internalNodes>
            0 -1 40 5.0430610775947571e-02</internalNodes>
          <leafValues>
            -1.9760479032993317e-01 5.6803452968597412e-01</leafValues></_>
        <_>
          <internalNodes>
            0 -1 17 -9.5697373151779175e-02</internalNodes>
          <leafValues>
            -8.0892640352249146e-01 1.8043628334999084e-01</leafValues></_>
        <_>
          <internalNodes>
            0 -1 6 -1.6695278882980347e-01</internalNodes>
          <leafValues>
            2.4565684795379639e-01 -5.8197647333145142e-01</leafValues></_>
        <_>
          <internalNodes>
            0 -1 57 -6.5017899032682180e-04</internalNodes>
          <leafValues>
            4.8179143667221069e-01 -2.8544402122497559e-01</leafValues></_>
        <_>
          <internalNodes>
            0 -1 30 -1.9454121589660645e-02</internalNodes>
          <leafValues>
            -9.1992199420928955e-01 9.9024198949337006e-02</leafValues></_>
        <_>
          <internalNodes>
            0 -1 89 3.0057789990678430e-04</internalNodes>
          <leafValues>
            -2.1975460648536682e-01 5.5168110132217407e-01</leafValues></_>
        <_>
          <internalNodes>
            0 -1 89 -3.0063465237617493e-04</internalNodes>
          <leafValues>
            4.5811274647712708e-01 -2.6584857702255249e-01</leafValues></_>
        <_>
          <internalNodes>
            0 -1 9 1.1953858193010092e-03</internalNodes>
          <leafValues>
            1.8924753367900848e-01 -6.8243598937988281e-01</leafValues></_>
        <_>
          <internalNodes>
            0 -1 69 9.4853626796975732e-04</internalNodes>
          <leafValues>
            -1.6378103196620941e-01 6.7942440509796143e-01</leafValues></_>
        <_>
          <internalNodes>
            0 -1 0 -1.0411445982754230e-03</internalNodes>
          <leafValues>
            -4.3387526273727417e-01 2.5874382257461548e-01</leafValues></_>
        <_>
          <internalNodes>
            0 -1 36 -4.4876966625452042e-02</internalNodes>
          <leafValues>
            4.0476006269454956e-01 -3.1028538942337036e-01</leafValues></_></weakClassifiers></_>
    <!-- stage 11 -->
    <_>
      <maxWeakCount>9</maxWeakCount>
      <stageThreshold>-7.0078074932098389e-01</stageThreshold>
      <weakClassifiers>
        <_>
          <internalNodes>
            0 -1 18 -1.5215161442756653e-01</internalNodes>
          <leafValues>
            -8.7969923019409180e-01 2.4849699437618256e-01</leafValues></_>
        <_>
          <internalNodes>
            0 -1 61 2.5930806994438171e-02</internalNodes>
          <leafValues>
            2.4396279454231262e-01 -6.7012047767639160e-01</leafValues></_>
        <_>
          <internalNodes>
            0 -1 107 -1.8456148609402589e-05</internalNodes>
          <leafValues>
            3.2148551940917969e-01 -3.6660751700401306e-01</leafValues></_>
        <_>
          <internalNodes>
            0 -1 107 -5.7024613488465548e-04</internalNodes>
          <leafValues>
            -7.7945262193679810e-01 1.8955984711647034e-01</leafValues></_>
        <_>
          <internalNodes>
            0 -1 105 6.1189853586256504e-03</internalNodes>
          <leafValues>
            -2.2433330118656158e-01 6.6179507970809937e-01</leafValues></_>
        <_>
          <internalNodes>
            0 -1 83 3.7828841595910490e-04</internalNodes>
          <leafValues>
            -1.9315853714942932e-01 5.6423294544219971e-01</leafValues></_>
        <_>
          <internalNodes>
            0 -1 83 -2.3373233852908015e-04</internalNodes>
          <leafValues>
            4.8955553770065308e-01 -3.1004396080970764e-01</leafValues></_>
        <_>
          <internalNodes>
            0 -1 80 3.9381355047225952e-02</internalNodes>
          <leafValues>
            1.9212597608566284e-01 -7.5170356035232544e-01</leafValues></_>
        <_>
          <internalNodes>
            0 -1 67 3.0560931190848351e-04</internalNodes>
          <leafValues>
            -2.5479274988174438e-01 5.2365678548812866e-01</leafValues></_></weakClassifiers></_>
    <!-- stage 12 -->
    <_>
      <maxWeakCount>11</maxWeakCount>
      <stageThreshold>-7.5498837232589722e-01</stageThreshold>
      <weakClassifiers>
        <_>
          <internalNodes>
            0 -1 88 9.8255917429924011e-02</internalNodes>
          <leafValues>
            -5.3947371244430542e-01 3.5671100020408630e-01</leafValues></_>
        <_>
          <internalNodes>
            0 -1 65 1.7872173339128494e-04</internalNodes>
          <leafValues>
            -2.3991060256958008e-01 5.4013174772262573e-01</leafValues></_>
        <_>
          <internalNodes>
            0 -1 66 -8.4651168435811996e-04</internalNodes>
          <leafValues>
            5.7444065809249878e-01 -1.9824945926666260e-01</leafValues></_>
        <_>
          <internalNodes>
            0 -1 62 3.2468233257532120e-04</internalNodes>
          <leafValues>
            -2.0300717651844025e-01 5.6133067607879639e-01</leafValues></_>
        <_>
          <internalNodes>
            0 -1 62 -3.0988355865702033e-04</internalNodes>
          <leafValues>
            5.1971322298049927e-01 -2.6984620094299316e-01</leafValues></_>
        <_>
          <internalNodes>
            0 -1 20 -3.9424531161785126e-02</internalNodes>
          <leafValues>
            -7.9399412870407104e-01 2.4494656920433044e-01</leafValues></_>
        <_>
          <internalNodes>
            0 -1 76 -3.9032563567161560e-02</internalNodes>
          <leafValues>
            -6.7575055360794067e-01 1.3979274034500122e-01</leafValues></_>
        <_>
          <internalNodes>
            0 -1 101 -2.8937205206602812e-04</internalNodes>
          <leafValues>
            4.8826554417610168e-01 -2.7396112680435181e-01</leafValues></_>
        <_>
          <internalNodes>
            0 -1 101 3.4029380185529590e-04</internalNodes>
          <leafValues>
            -2.2235983610153198e-01 5.8627182245254517e-01</leafValues></_>
        <_>
          <internalNodes>
            0 -1 72 3.6759995855391026e-03</internalNodes>
          <leafValues>
            -1.4284181594848633e-01 7.1685910224914551e-01</leafValues></_>
        <_>
          <internalNodes>
            0 -1 44 6.3839443027973175e-03</internalNodes>
          <leafValues>
            1.8769557774066925e-01 -9.7701507806777954e-01</leafValues></_></weakClassifiers></_>
    <!-- stage 13 -->
    <_>
      <maxWeakCount>11</maxWeakCount>
      <stageThreshold>-8.2870185375213623e-01</stageThreshold>
      <weakClassifiers>
        <_>
          <internalNodes>
            0 -1 43 -4.0336430072784424e-02</internalNodes>
          <leafValues>
            2.6632124185562134e-01 -7.5903612375259399e-01</leafValues></_>
        <_>
          <internalNodes>
            0 -1 49 8.0708703026175499e-03</internalNodes>
          <leafValues>
            -3.7046822905540466e-01 3.0543005466461182e-01</leafValues></_>
        <_>
          <internalNodes>
            0 -1 78 -5.8672996237874031e-04</internalNodes>
          <leafValues>
            6.0665512084960938e-01 -1.8230091035366058e-01</leafValues></_>
        <_>
          <internalNodes>
            0 -1 85 -1.5115665737539530e-03</internalNodes>
          <leafValues>
            5.4270380735397339e-01 -2.0994691550731659e-01</leafValues></_>
        <_>
          <internalNodes>
            0 -1 90 -2.8147030388936400e-04</internalNodes>
          <leafValues>
            6.3511699438095093e-01 -2.3128937184810638e-01</leafValues></_>
        <_>
          <internalNodes>
            0 -1 108 -5.1694049034267664e-05</internalNodes>
          <leafValues>
            3.8464689254760742e-01 -2.9720348119735718e-01</leafValues></_>
        <_>
          <internalNodes>
            0 -1 103 5.2285456331446767e-04</internalNodes>
          <leafValues>
            -1.5876869857311249e-01 6.4399993419647217e-01</leafValues></_>
        <_>
          <internalNodes>
            0 -1 103 -4.7507946146652102e-04</internalNodes>
          <leafValues>
            5.7895171642303467e-01 -2.1727254986763000e-01</leafValues></_>
        <_>
          <internalNodes>
            0 -1 31 1.0091736912727356e-02</internalNodes>
          <leafValues>
            1.7317335307598114e-01 -8.6929577589035034e-01</leafValues></_>
        <_>
          <internalNodes>
            0 -1 73 -3.4221759997308254e-03</internalNodes>
          <leafValues>
            6.5363335609436035e-01 -2.3961734771728516e-01</leafValues></_>
        <_>
          <internalNodes>
            0 -1 59 -6.0853669419884682e-03</internalNodes>
          <leafValues>
            -5.6843805313110352e-01 2.4663914740085602e-01</leafValues></_></weakClassifiers></_>
    <!-- stage 14 -->
    <_>
      <maxWeakCount>11</maxWeakCount>
      <stageThreshold>-8.8096541166305542e-01</stageThreshold>
      <weakClassifiers>
        <_>
          <internalNodes>
            0 -1 74 2.3697808384895325e-02</internalNodes>
          <leafValues>
            2.4950100481510162e-01 -9.2248064279556274e-01</leafValues></_>
        <_>
          <internalNodes>
            0 -1 81 -2.0926848053932190e-02</internalNodes>
          <leafValues>
            -6.9436806440353394e-01 2.1058095991611481e-01</leafValues></_>
        <_>
          <internalNodes>
            0 -1 3 1.1038580909371376e-02</internalNodes>
          <leafValues>
            1.1113961040973663e-01 -7.2106713056564331e-01</leafValues></_>
        <_>
          <internalNodes>
            0 -1 25 -5.8704783441498876e-04</internalNodes>
          <leafValues>
            -5.5344986915588379e-01 2.1489478647708893e-01</leafValues></_>
        <_>
          <internalNodes>
            0 -1 60 5.6247182190418243e-02</internalNodes>
          <leafValues>
            1.1327747255563736e-01 -9.6898227930068970e-01</leafValues></_>
        <_>
          <internalNodes>
            0 -1 71 -1.9201210234314203e-03</internalNodes>
          <leafValues>
            5.8501678705215454e-01 -2.2586044669151306e-01</leafValues></_>
        <_>
          <internalNodes>
            0 -1 64 -5.3393002599477768e-04</internalNodes>
          <leafValues>
            -5.4052418470382690e-01 1.8482650816440582e-01</leafValues></_>
        <_>
          <internalNodes>
            0 -1 55 -1.0837834328413010e-02</internalNodes>
          <leafValues>
            3.8312333822250366e-01 -2.7745521068572998e-01</leafValues></_>
        <_>
          <internalNodes>
            0 -1 106 -2.9835547320544720e-04</internalNodes>
          <leafValues>
            -5.0522327423095703e-01 2.2282624244689941e-01</leafValues></_>
        <_>
          <internalNodes>
            0 -1 2 5.4189830552786589e-04</internalNodes>
          <leafValues>
            1.8539427220821381e-01 -6.2956261634826660e-01</leafValues></_>
        <_>
          <internalNodes>
            0 -1 77 -1.6110409051179886e-03</internalNodes>
          <leafValues>
            6.2538945674896240e-01 -2.2292698919773102e-01</leafValues></_></weakClassifiers></_></stages>
  <features>
    <_>
      <rects>
        <_>
          0 0 1 10 -1.</_>
        <_>
          0 5 1 5 2.</_></rects>
      <tilted>0</tilted></_>
    <_>
      <rects>
        <_>
          0 0 4 1 -1.</_>
        <_>
          2 0 2 1 2.</_></rects>
      <tilted>0</tilted></_>
    <_>
      <rects>
        <_>
          0 0 3 4 -1.</_>
        <_>
          0 2 3 2 2.</_></rects>
      <tilted>0</tilted></_>
    <_>
      <rects>
        <_>
          0 0 24 1 -1.</_>
        <_>
          12 0 12 1 2.</_></rects>
      <tilted>0</tilted></_>
    <_>
      <rects>
        <_>
          0 0 24 2 -1.</_>
        <_>
          12 0 12 2 2.</_></rects>
      <tilted>0</tilted></_>
    <_>
      <rects>
        <_>
          0 0 18 6 -1.</_>
        <_>
          0 3 18 3 2.</_></rects>
      <tilted>0</tilted></_>
    <_>
      <rects>
        <_>
          0 0 21 20 -1.</_>
        <_>
          0 10 21 10 2.</_></rects>
      <tilted>0</tilted></_>
    <_>
      <rects>
        <_>
          0 1 8 21 -1.</_>
        <_>
          4 1 4 21 2.</_></rects>
      <tilted>0</tilted></_>
    <_>
      <rects>
        <_>
          0 2 1 4 -1.</_>
        <_>
          0 4 1 2 2.</_></rects>
      <tilted>0</tilted></_>
    <_>
      <rects>
        <_>
          0 2 8 3 -1.</_>
        <_>
          4 2 4 3 2.</_></rects>
      <tilted>0</tilted></_>
    <_>
      <rects>
        <_>
          0 3 8 13 -1.</_>
        <_>
          4 3 4 13 2.</_></rects>
      <tilted>0</tilted></_>
    <_>
      <rects>
        <_>
          0 3 8 16 -1.</_>
        <_>
          4 3 4 16 2.</_></rects>
      <tilted>0</tilted></_>
    <_>
      <rects>
        <_>
          0 3 11 9 -1.</_>
        <_>
          0 6 11 3 3.</_></rects>
      <tilted>0</tilted></_>
    <_>
      <rects>
        <_>
          0 4 6 17 -1.</_>
        <_>
          3 4 3 17 2.</_></rects>
      <tilted>0</tilted></_>
    <_>
      <rects>
        <_>
          0 4 24 11 -1.</_>
        <_>
          8 4 8 11 3.</_></rects>
      <tilted>0</tilted></_>
    <_>
      <rects>
        <_>
          0 4 24 17 -1.</_>
        <_>
          8 4 8 17 3.</_></rects>
      <tilted>0</tilted></_>
    <_>
      <rects>
        <_>
          0 4 18 15 -1.</_>
        <_>
          0 9 18 5 3.</_></rects>
      <tilted>0</tilted></_>
    <_>
      <rects>
        <_>
          0 5 22 10 -1.</_>
        <_>
          0 10 22 5 2.</_></rects>
      <tilted>0</tilted></_>
    <_>
      <rects>
        <_>
          0 6 18 18 -1.</_>
        <_>
          0 15 18 9 2.</_></rects>
      <tilted>0</tilted></_>
    <_>
      <rects>
        <_>
          0 7 12 2 -1.</_>
        <_>
          6 7 6 2 2.</_></rects>
      <tilted>0</tilted></_>
    <_>
      <rects>
        <_>
          0 7 21 9 -1.</_>
        <_>
          0 10 21 3 3.</_></rects>
      <tilted>0</tilted></_>
    <_>
      <rects>
        <_>
          0 8 18 11 -1.</_>
        <_>
          6 8 6 11 3.</_></rects>
      <tilted>0</tilted></_>
    <_>
      <rects>
        <_>
          0 10 4 10 -1.</_>
        <_>
          2 10 2 10 2.</_></rects>
      <tilted>0</tilted></_>
    <_>
      <rects>
        <_>
          0 12 18 6 -1.</_>
        <_>
          0 15 18 3 2.</_></rects>
      <tilted>0</tilted></_>
    <_>
      <rects>
        <_>
          0 21 1 3 -1.</_>
        <_>
          0 22 1 1 3.</_></rects>
      <tilted>0</tilted></_>
    <_>
      <rects>
        <_>
          1 0 2 2 -1.</_>
        <_>
          1 1 2 1 2.</_></rects>
      <tilted>0</tilted></_>
    <_>
      <rects>
        <_>
          1 3 12 2 -1.</_>
        <_>
          5 3 4 2 3.</_></rects>
      <tilted>0</tilted></_>
    <_>
      <rects>
        <_>
          1 8 21 12 -1.</_>
        <_>
          1 14 21 6 2.</_></rects>
      <tilted>0</tilted></_>
    <_>
      <rects>
        <_>
          1 20 19 4 -1.</_>
        <_>
          1 22 19 2 2.</_></rects>
      <tilted>0</tilted></_>
    <_>
      <rects>
        <_>
          2 0 21 16 -1.</_>
        <_>
          2 8 21 8 2.</_></rects>
      <tilted>0</tilted></_>
    <_>
      <rects>
        <_>
          2 6 14 6 -1.</_>
        <_>
          2 8 14 2 3.</_></rects>
      <tilted>0</tilted></_>
    <_>
      <rects>
        <_>
          2 7 20 4 -1.</_>
        <_>
          2 9 20 2 2.</_></rects>
      <tilted>0</tilted></_>
    <_>
      <rects>
        <_>
          2 15 22 9 -1.</_>
        <_>
          2 18 22 3 3.</_></rects>
      <tilted>0</tilted></_>
    <_>
      <rects>
        <_>
          3 20 20 4 -1.</_>
        <_>
          3 22 20 2 2.</_></rects>
      <tilted>0</tilted></_>
    <_>
      <rects>
        <_>
          3 20 21 4 -1.</_>
        <_>
          3 22 21 2 2.</_></rects>
      <tilted>0</tilted></_>
    <_>
      <rects>
        <_>
          3 22 15 2 -1.</_>
        <_>
          3 23 15 1 2.</_></rects>
      <tilted>0</tilted></_>
    <_>
      <rects>
        <_>
          4 0 8 6 -1.</_>
        <_>
          4 3 8 3 2.</_></rects>
      <tilted>0</tilted></_>
    <_>
      <rects>
        <_>
          4 0 14 10 -1.</_>
        <_>
          4 5 14 5 2.</_></rects>
      <tilted>0</tilted></_>
    <_>
      <rects>
        <_>
          4 1 9 8 -1.</_>
        <_>
          4 5 9 4 2.</_></rects>
      <tilted>0</tilted></_>
    <_>
      <rects>
        <_>
          4 20 12 4 -1.</_>
        <_>
          4 22 12 2 2.</_></rects>
      <tilted>0</tilted></_>
    <_>
      <rects>
        <_>
          4 20 16 4 -1.</_>
        <_>
          4 22 16 2 2.</_></rects>
      <tilted>0</tilted></_>
    <_>
      <rects>
        <_>
          5 0 8 9 -1.</_>
        <_>
          5 3 8 3 3.</_></rects>
      <tilted>0</tilted></_>
    <_>
      <rects>
        <_>
          5 0 14 6 -1.</_>
        <_>
          5 3 14 3 2.</_></rects>
      <tilted>0</tilted></_>
    <_>
      <rects>
        <_>
          5 0 19 6 -1.</_>
        <_>
          5 3 19 3 2.</_></rects>
      <tilted>0</tilted></_>
    <_>
      <rects>
        <_>
          5 5 4 4 -1.</_>
        <_>
          5 7 4 2 2.</_></rects>
      <tilted>0</tilted></_>
    <_>
      <rects>
        <_>
          5 12 13 6 -1.</_>
        <_>
          5 15 13 3 2.</_></rects>
      <tilted>0</tilted></_>
    <_>
      <rects>
        <_>
          5 15 2 2 -1.</_>
        <_>
          5 15 1 1 2.</_>
        <_>
          6 16 1 1 2.</_></rects>
      <tilted>0</tilted></_>
    <_>
      <rects>
        <_>
          5 20 10 4 -1.</_>
        <_>
          5 22 10 2 2.</_></rects>
      <tilted>0</tilted></_>
    <_>
      <rects>
        <_>
          5 20 19 4 -1.</_>
        <_>
          5 22 19 2 2.</_></rects>
      <tilted>0</tilted></_>
    <_>
      <rects>
        <_>
          5 22 14 2 -1.</_>
        <_>
          5 23 14 1 2.</_></rects>
      <tilted>0</tilted></_>
    <_>
      <rects>
        <_>
          6 0 12 6 -1.</_>
        <_>
          6 3 12 3 2.</_></rects>
      <tilted>0</tilted></_>
    <_>
      <rects>
        <_>
          6 11 2 3 -1.</_>
        <_>
          6 12 2 1 3.</_></rects>
      <tilted>0</tilted></_>
    <_>
      <rects>
        <_>
          7 0 12 8 -1.</_>
        <_>
          7 4 12 4 2.</_></rects>
      <tilted>0</tilted></_>
    <_>
      <rects>
        <_>
          7 0 12 12 -1.</_>
        <_>
          7 4 12 4 3.</_></rects>
      <tilted>0</tilted></_>
    <_>
      <rects>
        <_>
          7 0 12 24 -1.</_>
        <_>
          7 8 12 8 3.</_></rects>
      <tilted>0</tilted></_>
    <_>
      <rects>
        <_>
          7 1 4 6 -1.</_>
        <_>
          7 3 4 2 3.</_></rects>
      <tilted>0</tilted></_>
    <_>
      <rects>
        <_>
          7 5 6 9 -1.</_>
        <_>
          7 8 6 3 3.</_></rects>
      <tilted>0</tilted></_>
    <_>
      <rects>
        <_>
          7 11 3 1 -1.</_>
        <_>
          8 11 1 1 3.</_></rects>
      <tilted>0</tilted></_>
    <_>
      <rects>
        <_>
          8 0 9 6 -1.</_>
        <_>
          8 3 9 3 2.</_></rects>
      <tilted>0</tilted></_>
    <_>
      <rects>
        <_>
          8 6 6 6 -1.</_>
        <_>
          8 8 6 2 3.</_></rects>
      <tilted>0</tilted></_>
    <_>
      <rects>
        <_>
          8 7 15 12 -1.</_>
        <_>
          8 11 15 4 3.</_></rects>
      <tilted>0</tilted></_>
    <_>
      <rects>
        <_>
          8 9 9 12 -1.</_>
        <_>
          8 15 9 6 2.</_></rects>
      <tilted>0</tilted></_>
    <_>
      <rects>
        <_>
          8 15 2 2 -1.</_>
        <_>
          8 15 1 1 2.</_>
        <_>
          9 16 1 1 2.</_></rects>
      <tilted>0</tilted></_>
    <_>
      <rects>
        <_>
          8 18 2 6 -1.</_>
        <_>
          8 21 2 3 2.</_></rects>
      <tilted>0</tilted></_>
    <_>
      <rects>
        <_>
          9 0 4 1 -1.</_>
        <_>
          11 0 2 1 2.</_></rects>
      <tilted>0</tilted></_>
    <_>
      <rects>
        <_>
          9 9 2 1 -1.</_>
        <_>
          10 9 1 1 2.</_></rects>
      <tilted>0</tilted></_>
    <_>
      <rects>
        <_>
          9 9 3 1 -1.</_>
        <_>
          10 9 1 1 3.</_></rects>
      <tilted>0</tilted></_>
    <_>
      <rects>
        <_>
          10 6 2 2 -1.</_>
        <_>
          10 6 1 1 2.</_>
        <_>
          11 7 1 1 2.</_></rects>
      <tilted>0</tilted></_>
    <_>
      <rects>
        <_>
          10 7 3 3 -1.</_>
        <_>
          11 7 1 3 3.</_></rects>
      <tilted>0</tilted></_>
    <_>
      <rects>
        <_>
          10 9 1 3 -1.</_>
        <_>
          10 10 1 1 3.</_></rects>
      <tilted>0</tilted></_>
    <_>
      <rects>
        <_>
          10 12 3 6 -1.</_>
        <_>
          11 12 1 6 3.</_></rects>
      <tilted>0</tilted></_>
    <_>
      <rects>
        <_>
          10 14 3 3 -1.</_>
        <_>
          10 15 3 1 3.</_></rects>
      <tilted>0</tilted></_>
    <_>
      <rects>
        <_>
          11 2 2 14 -1.</_>
        <_>
          11 2 1 7 2.</_>
        <_>
          12 9 1 7 2.</_></rects>
      <tilted>0</tilted></_>
    <_>
      <rects>
        <_>
          11 6 6 1 -1.</_>
        <_>
          13 6 2 1 3.</_></rects>
      <tilted>0</tilted></_>
    <_>
      <rects>
        <_>
          11 6 8 9 -1.</_>
        <_>
          11 9 8 3 3.</_></rects>
      <tilted>0</tilted></_>
    <_>
      <rects>
        <_>
          11 8 3 2 -1.</_>
        <_>
          12 8 1 2 3.</_></rects>
      <tilted>0</tilted></_>
    <_>
      <rects>
        <_>
          11 9 13 12 -1.</_>
        <_>
          11 13 13 4 3.</_></rects>
      <tilted>0</tilted></_>
    <_>
      <rects>
        <_>
          11 14 4 2 -1.</_>
        <_>
          11 14 2 1 2.</_>
        <_>
          13 15 2 1 2.</_></rects>
      <tilted>0</tilted></_>
    <_>
      <rects>
        <_>
          11 15 3 1 -1.</_>
        <_>
          12 15 1 1 3.</_></rects>
      <tilted>0</tilted></_>
    <_>
      <rects>
        <_>
          12 5 3 1 -1.</_>
        <_>
          13 5 1 1 3.</_></rects>
      <tilted>0</tilted></_>
    <_>
      <rects>
        <_>
          12 6 9 15 -1.</_>
        <_>
          12 11 9 5 3.</_></rects>
      <tilted>0</tilted></_>
    <_>
      <rects>
        <_>
          12 7 12 9 -1.</_>
        <_>
          12 10 12 3 3.</_></rects>
      <tilted>0</tilted></_>
    <_>
      <rects>
        <_>
          12 18 4 6 -1.</_>
        <_>
          12 20 4 2 3.</_></rects>
      <tilted>0</tilted></_>
    <_>
      <rects>
        <_>
          13 12 2 2 -1.</_>
        <_>
          13 12 1 1 2.</_>
        <_>
          14 13 1 1 2.</_></rects>
      <tilted>0</tilted></_>
    <_>
      <rects>
        <_>
          14 4 10 20 -1.</_>
        <_>
          19 4 5 20 2.</_></rects>
      <tilted>0</tilted></_>
    <_>
      <rects>
        <_>
          14 5 3 3 -1.</_>
        <_>
          15 5 1 3 3.</_></rects>
      <tilted>0</tilted></_>
    <_>
      <rects>
        <_>
          14 5 10 11 -1.</_>
        <_>
          19 5 5 11 2.</_></rects>
      <tilted>0</tilted></_>
    <_>
      <rects>
        <_>
          14 7 10 17 -1.</_>
        <_>
          19 7 5 17 2.</_></rects>
      <tilted>0</tilted></_>
    <_>
      <rects>
        <_>
          14 8 10 16 -1.</_>
        <_>
          19 8 5 16 2.</_></rects>
      <tilted>0</tilted></_>
    <_>
      <rects>
        <_>
          14 15 2 2 -1.</_>
        <_>
          14 15 1 1 2.</_>
        <_>
          15 16 1 1 2.</_></rects>
      <tilted>0</tilted></_>
    <_>
      <rects>
        <_>
          15 6 2 1 -1.</_>
        <_>
          16 6 1 1 2.</_></rects>
      <tilted>0</tilted></_>
    <_>
      <rects>
        <_>
          15 10 3 4 -1.</_>
        <_>
          16 10 1 4 3.</_></rects>
      <tilted>0</tilted></_>
    <_>
      <rects>
        <_>
          15 14 1 2 -1.</_>
        <_>
          15 15 1 1 2.</_></rects>
      <tilted>0</tilted></_>
    <_>
      <rects>
        <_>
          16 0 8 24 -1.</_>
        <_>
          20 0 4 24 2.</_></rects>
      <tilted>0</tilted></_>
    <_>
      <rects>
        <_>
          16 5 8 17 -1.</_>
        <_>
          20 5 4 17 2.</_></rects>
      <tilted>0</tilted></_>
    <_>
      <rects>
        <_>
          16 5 8 19 -1.</_>
        <_>
          20 5 4 19 2.</_></rects>
      <tilted>0</tilted></_>
    <_>
      <rects>
        <_>
          16 7 3 3 -1.</_>
        <_>
          17 7 1 3 3.</_></rects>
      <tilted>0</tilted></_>
    <_>
      <rects>
        <_>
          16 8 2 1 -1.</_>
        <_>
          17 8 1 1 2.</_></rects>
      <tilted>0</tilted></_>
    <_>
      <rects>
        <_>
          16 10 1 3 -1.</_>
        <_>
          16 11 1 1 3.</_></rects>
      <tilted>0</tilted></_>
    <_>
      <rects>
        <_>
          16 11 8 8 -1.</_>
        <_>
          20 11 4 8 2.</_></rects>
      <tilted>0</tilted></_>
    <_>
      <rects>
        <_>
          17 8 2 3 -1.</_>
        <_>
          17 9 2 1 3.</_></rects>
      <tilted>0</tilted></_>
    <_>
      <rects>
        <_>
          17 17 2 2 -1.</_>
        <_>
          17 17 1 1 2.</_>
        <_>
          18 18 1 1 2.</_></rects>
      <tilted>0</tilted></_>
    <_>
      <rects>
        <_>
          18 0 6 10 -1.</_>
        <_>
          18 0 3 5 2.</_>
        <_>
          21 5 3 5 2.</_></rects>
      <tilted>0</tilted></_>
    <_>
      <rects>
        <_>
          18 11 2 2 -1.</_>
        <_>
          18 11 1 1 2.</_>
        <_>
          19 12 1 1 2.</_></rects>
      <tilted>0</tilted></_>
    <_>
      <rects>
        <_>
          19 22 5 2 -1.</_>
        <_>
          19 23 5 1 2.</_></rects>
      <tilted>0</tilted></_>
    <_>
      <rects>
        <_>
          22 16 2 6 -1.</_>
        <_>
          23 16 1 6 2.</_></rects>
      <tilted>0</tilted></_>
    <_>
      <rects>
        <_>
          23 9 1 9 -1.</_>
        <_>
          23 12 1 3 3.</_></rects>
      <tilted>0</tilted></_>
    <_>
      <rects>
        <_>
          23 19 1 4 -1.</_>
        <_>
          23 21 1 2 2.</_></rects>
      <tilted>0</tilted></_>
    <_>
      <rects>
        <_>
          23 20 1 4 -1.</_>
        <_>
          23 22 1 2 2.</_></rects>
      <tilted>0</tilted></_>
    <_>
      <rects>
        <_>
          23 22 1 2 -1.</_>
        <_>
          23 23 1 1 2.</_></rects>
      <tilted>0</tilted></_></features></cascade>
</opencv_storage>
