<?xml version="1.0"?>
<opencv_storage>
<cascade>
  <stageType>BOOST</stageType>
  <featureType>HAAR</featureType>
  <height>24</height>
  <width>24</width>
  <stageParams>
    <boostType>GAB</boostType>
    <minHitRate>9.9500000476837158e-01</minHitRate>
    <maxFalseAlarm>5.0000000000000000e-01</maxFalseAlarm>
    <weightTrimRate>9.4999998807907104e-01</weightTrimRate>
    <maxDepth>1</maxDepth>
    <maxWeakCount>100</maxWeakCount></stageParams>
  <featureParams>
    <maxCatCount>0</maxCatCount>
    <featSize>1</featSize>
    <mode>BASIC</mode></featureParams>
  <stageNum>10</stageNum>
  <stages>
    <!-- stage 0 -->
    <_>
      <maxWeakCount>2</maxWeakCount>
      <stageThreshold>-9.2206902801990509e-02</stageThreshold>
      <weakClassifiers>
        <_>
          <internalNodes>
            0 -1 7 -2.1423694491386414e-01</internalNodes>
          <leafValues>
            9.2452830076217651e-01 -9.9126636981964111e-01</leafValues></_>
        <_>
          <internalNodes>
            0 -1 21 8.2278817892074585e-02</internalNodes>
          <leafValues>
            -9.8344945907592773e-01 8.9905947446823120e-01</leafValues></_></weakClassifiers></_>
    <!-- stage 1 -->
    <_>
      <maxWeakCount>2</maxWeakCount>
      <stageThreshold>-3.1562018394470215e-01</stageThreshold>
      <weakClassifiers>
        <_>
          <internalNodes>
            0 -1 20 1.0888857766985893e-02</internalNodes>
          <leafValues>
            -9.8153847455978394e-01 7.5704991817474365e-01</leafValues></_>
        <_>
          <internalNodes>
            0 -1 15 -6.0126231983304024e-03</internalNodes>
          <leafValues>
            6.6591829061508179e-01 -9.3237483501434326e-01</leafValues></_></weakClassifiers></_>
    <!-- stage 2 -->
    <_>
      <maxWeakCount>2</maxWeakCount>
      <stageThreshold>-4.0032562613487244e-01</stageThreshold>
      <weakClassifiers>
        <_>
          <internalNodes>
            0 -1 8 -3.1409406661987305e-01</internalNodes>
          <leafValues>
            9.0123456716537476e-01 -9.2634558677673340e-01</leafValues></_>
        <_>
          <internalNodes>
            0 -1 1 -5.6235384941101074e-01</internalNodes>
          <leafValues>
            5.2601999044418335e-01 -9.6057355403900146e-01</leafValues></_></weakClassifiers></_>
    <!-- stage 3 -->
    <_>
      <maxWeakCount>3</maxWeakCount>
      <stageThreshold>-1.2838253974914551e+00</stageThreshold>
      <weakClassifiers>
        <_>
          <internalNodes>
            0 -1 17 -2.4290910363197327e-01</internalNodes>
          <leafValues>
            6.6324436664581299e-01 -9.8076921701431274e-01</leafValues></_>
        <_>
          <internalNodes>
            0 -1 4 -7.2498410940170288e-01</internalNodes>
          <leafValues>
            7.9251605272293091e-01 -7.5496625900268555e-01</leafValues></_>
        <_>
          <internalNodes>
            0 -1 0 -2.3073442280292511e-01</internalNodes>
          <leafValues>
            4.5191010832786560e-01 -1.</leafValues></_></weakClassifiers></_>
    <!-- stage 4 -->
    <_>
      <maxWeakCount>2</maxWeakCount>
      <stageThreshold>-5.0297021865844727e-01</stageThreshold>
      <weakClassifiers>
        <_>
          <internalNodes>
            0 -1 23 7.4466034770011902e-02</internalNodes>
          <leafValues>
            -8.4101748466491699e-01 4.9792531132698059e-01</leafValues></_>
        <_>
          <internalNodes>
            0 -1 18 7.0429872721433640e-04</internalNodes>
          <leafValues>
            3.3804726600646973e-01 -9.7885417938232422e-01</leafValues></_></weakClassifiers></_>
    <!-- stage 5 -->
    <_>
      <maxWeakCount>2</maxWeakCount>
      <stageThreshold>-4.6331775188446045e-01</stageThreshold>
      <weakClassifiers>
        <_>
          <internalNodes>
            0 -1 2 -7.5813817977905273e-01</internalNodes>
          <leafValues>
            5.4603856801986694e-01 -8.4472048282623291e-01</leafValues></_>
        <_>
          <internalNodes>
            0 -1 14 9.0292831882834435e-03</internalNodes>
          <leafValues>
            -9.8433607816696167e-01 3.8140273094177246e-01</leafValues></_></weakClassifiers></_>
    <!-- stage 6 -->
    <_>
      <maxWeakCount>3</maxWeakCount>
      <stageThreshold>-1.3843902349472046e+00</stageThreshold>
      <weakClassifiers>
        <_>
          <internalNodes>
            0 -1 9 -4.3597060721367598e-04</internalNodes>
          <leafValues>
            -9.6319019794464111e-01 2.9260450601577759e-01</leafValues></_>
        <_>
          <internalNodes>
            0 -1 24 9.3436799943447113e-04</internalNodes>
          <leafValues>
            3.0422869324684143e-01 -9.5288354158401489e-01</leafValues></_>
        <_>
          <internalNodes>
            0 -1 19 -3.5054832696914673e-02</internalNodes>
          <leafValues>
            4.6636474132537842e-01 -7.2542870044708252e-01</leafValues></_></weakClassifiers></_>
    <!-- stage 7 -->
    <_>
      <maxWeakCount>4</maxWeakCount>
      <stageThreshold>-9.2967450618743896e-01</stageThreshold>
      <weakClassifiers>
        <_>
          <internalNodes>
            0 -1 5 -5.4160103201866150e-02</internalNodes>
          <leafValues>
            3.5672515630722046e-01 -7.8929764032363892e-01</leafValues></_>
        <_>
          <internalNodes>
            0 -1 25 -1.6618342488072813e-04</internalNodes>
          <leafValues>
            3.0519789457321167e-01 -9.7433799505233765e-01</leafValues></_>
        <_>
          <internalNodes>
            0 -1 22 4.6365894377231598e-02</internalNodes>
          <leafValues>
            -8.1000214815139771e-01 3.9658963680267334e-01</leafValues></_>
        <_>
          <internalNodes>
            0 -1 13 -2.8187275165691972e-04</internalNodes>
          <leafValues>
            -7.8159540891647339e-01 4.6003311872482300e-01</leafValues></_></weakClassifiers></_>
    <!-- stage 8 -->
    <_>
      <maxWeakCount>3</maxWeakCount>
      <stageThreshold>-4.8023065924644470e-01</stageThreshold>
      <weakClassifiers>
        <_>
          <internalNodes>
            0 -1 16 -6.6253095865249634e-02</internalNodes>
          <leafValues>
            2.1069182455539703e-01 -8.9052629470825195e-01</leafValues></_>
        <_>
          <internalNodes>
            0 -1 10 -9.2942910268902779e-03</internalNodes>
          <leafValues>
            3.4007224440574646e-01 -9.3518054485321045e-01</leafValues></_>
        <_>
          <internalNodes>
            0 -1 6 -2.2553119342774153e-03</internalNodes>
          <leafValues>
            2.4425809085369110e-01 -1.</leafValues></_></weakClassifiers></_>
    <!-- stage 9 -->
    <_>
      <maxWeakCount>3</maxWeakCount>
      <stageThreshold>-1.2743707895278931e+00</stageThreshold>
      <weakClassifiers>
        <_>
          <internalNodes>
            0 -1 11 -2.7204309590160847e-03</internalNodes>
          <leafValues>
            -9.5329087972640991e-01 2.5000000000000000e-01</leafValues></_>
        <_>
          <internalNodes>
            0 -1 3 -3.9979225397109985e-01</internalNodes>
          <leafValues>
            4.9239867925643921e-01 -7.1495777368545532e-01</leafValues></_>
        <_>
          <internalNodes>
            0 -1 12 -9.0451613068580627e-03</internalNodes>
          <leafValues>
            3.9387789368629456e-01 -8.8297700881958008e-01</leafValues></_></weakClassifiers></_></stages>
  <features>
    <_>
      <rects>
        <_>
          0 0 20 18 -1.</_>
        <_>
          0 9 20 9 2.</_></rects>
      <tilted>0</tilted></_>
    <_>
      <rects>
        <_>
          0 6 24 15 -1.</_>
        <_>
          8 6 8 15 3.</_></rects>
      <tilted>0</tilted></_>
    <_>
      <rects>
        <_>
          0 7 24 15 -1.</_>
        <_>
          8 7 8 15 3.</_></rects>
      <tilted>0</tilted></_>
    <_>
      <rects>
        <_>
          0 8 24 7 -1.</_>
        <_>
          8 8 8 7 3.</_></rects>
      <tilted>0</tilted></_>
    <_>
      <rects>
        <_>
          0 8 24 13 -1.</_>
        <_>
          8 8 8 13 3.</_></rects>
      <tilted>0</tilted></_>
    <_>
      <rects>
        <_>
          0 9 24 1 -1.</_>
        <_>
          8 9 8 1 3.</_></rects>
      <tilted>0</tilted></_>
    <_>
      <rects>
        <_>
          0 10 2 14 -1.</_>
        <_>
          0 17 2 7 2.</_></rects>
      <tilted>0</tilted></_>
    <_>
      <rects>
        <_>
          0 10 24 5 -1.</_>
        <_>
          8 10 8 5 3.</_></rects>
      <tilted>0</tilted></_>
    <_>
      <rects>
        <_>
          0 10 24 6 -1.</_>
        <_>
          8 10 8 6 3.</_></rects>
      <tilted>0</tilted></_>
    <_>
      <rects>
        <_>
          0 23 8 1 -1.</_>
        <_>
          4 23 4 1 2.</_></rects>
      <tilted>0</tilted></_>
    <_>
      <rects>
        <_>
          0 23 20 1 -1.</_>
        <_>
          10 23 10 1 2.</_></rects>
      <tilted>0</tilted></_>
    <_>
      <rects>
        <_>
          1 9 1 14 -1.</_>
        <_>
          1 16 1 7 2.</_></rects>
      <tilted>0</tilted></_>
    <_>
      <rects>
        <_>
          2 0 21 4 -1.</_>
        <_>
          2 2 21 2 2.</_></rects>
      <tilted>0</tilted></_>
    <_>
      <rects>
        <_>
          3 23 6 1 -1.</_>
        <_>
          6 23 3 1 2.</_></rects>
      <tilted>0</tilted></_>
    <_>
      <rects>
        <_>
          4 3 18 2 -1.</_>
        <_>
          13 3 9 2 2.</_></rects>
      <tilted>0</tilted></_>
    <_>
      <rects>
        <_>
          5 0 6 4 -1.</_>
        <_>
          5 2 6 2 2.</_></rects>
      <tilted>0</tilted></_>
    <_>
      <rects>
        <_>
          6 12 12 12 -1.</_>
        <_>
          6 16 12 4 3.</_></rects>
      <tilted>0</tilted></_>
    <_>
      <rects>
        <_>
          7 0 17 18 -1.</_>
        <_>
          7 9 17 9 2.</_></rects>
      <tilted>0</tilted></_>
    <_>
      <rects>
        <_>
          8 0 16 1 -1.</_>
        <_>
          16 0 8 1 2.</_></rects>
      <tilted>0</tilted></_>
    <_>
      <rects>
        <_>
          8 15 9 9 -1.</_>
        <_>
          8 18 9 3 3.</_></rects>
      <tilted>0</tilted></_>
    <_>
      <rects>
        <_>
          8 18 4 6 -1.</_>
        <_>
          8 21 4 3 2.</_></rects>
      <tilted>0</tilted></_>
    <_>
      <rects>
        <_>
          11 0 12 16 -1.</_>
        <_>
          11 0 6 8 2.</_>
        <_>
          17 8 6 8 2.</_></rects>
      <tilted>0</tilted></_>
    <_>
      <rects>
        <_>
          13 19 10 5 -1.</_>
        <_>
          18 19 5 5 2.</_></rects>
      <tilted>0</tilted></_>
    <_>
      <rects>
        <_>
          14 3 10 18 -1.</_>
        <_>
          14 3 5 9 2.</_>
        <_>
          19 12 5 9 2.</_></rects>
      <tilted>0</tilted></_>
    <_>
      <rects>
        <_>
          19 7 4 5 -1.</_>
        <_>
          21 7 2 5 2.</_></rects>
      <tilted>0</tilted></_>
    <_>
      <rects>
        <_>
          23 0 1 24 -1.</_>
        <_>
          23 12 1 12 2.</_></rects>
      <tilted>0</tilted></_></features></cascade>
</opencv_storage>
